digraph Tree {
node [shape=box] ;
0 [label="thal1 <= -0.096\ngini = 0.496\nsamples = 303\nvalue = [138, 165]"] ;
1 [label="cp0 <= 0.056\ngini = 0.38\nsamples = 137\nvalue = [102, 35]"] ;
0 -> 1 [labeldistance=2.5, labelangle=45, headlabel="True"] ;
2 [label="ca <= -0.225\ngini = 0.496\nsamples = 46\nvalue = [21, 25]"] ;
1 -> 2 ;
3 [label="gini = 0.408\nsamples = 28\nvalue = [8, 20]"] ;
2 -> 3 ;
4 [label="gini = 0.401\nsamples = 18\nvalue = [13, 5]"] ;
2 -> 4 ;
5 [label="oldpeak <= -0.422\ngini = 0.196\nsamples = 91\nvalue = [81, 10]"] ;
1 -> 5 ;
6 [label="gini = 0.463\nsamples = 22\nvalue = [14, 8]"] ;
5 -> 6 ;
7 [label="gini = 0.056\nsamples = 69\nvalue = [67, 2]"] ;
5 -> 7 ;
8 [label="ca <= -0.225\ngini = 0.34\nsamples = 166\nvalue = [36, 130]"] ;
0 -> 8 [labeldistance=2.5, labelangle=-45, headlabel="False"] ;
9 [label="trestbps <= 1.506\ngini = 0.188\nsamples = 114\nvalue = [12, 102]"] ;
8 -> 9 ;
10 [label="gini = 0.152\nsamples = 109\nvalue = [9, 100]"] ;
9 -> 10 ;
11 [label="gini = 0.48\nsamples = 5\nvalue = [3, 2]"] ;
9 -> 11 ;
12 [label="cp0 <= 0.056\ngini = 0.497\nsamples = 52\nvalue = [24, 28]"] ;
8 -> 12 ;
13 [label="gini = 0.342\nsamples = 32\nvalue = [7, 25]"] ;
12 -> 13 ;
14 [label="gini = 0.255\nsamples = 20\nvalue = [17, 3]"] ;
12 -> 14 ;
}